<?xml version="1.0"?>
<opencv_storage>
<cascade>
  <stageType>BOOST</stageType>
  <featureType>HAAR</featureType>
  <height>24</height>
  <width>36</width>
  <stageParams>
    <boostType>GAB</boostType>
    <minHitRate>9.9500000476837158e-01</minHitRate>
    <maxFalseAlarm>5.0000000000000000e-01</maxFalseAlarm>
    <weightTrimRate>9.4999998807907104e-01</weightTrimRate>
    <maxDepth>1</maxDepth>
    <maxWeakCount>100</maxWeakCount></stageParams>
  <featureParams>
    <maxCatCount>0</maxCatCount>
    <featSize>1</featSize>
    <mode>BASIC</mode></featureParams>
  <stageNum>10</stageNum>
  <stages>
    <!-- stage 0 -->
    <_>
      <maxWeakCount>3</maxWeakCount>
      <stageThreshold>-1.1443803310394287e+00</stageThreshold>
      <weakClassifiers>
        <_>
          <internalNodes>
            0 -1 4 -2.5592324137687683e-01</internalNodes>
          <leafValues>
            1. -9.5539033412933350e-01</leafValues></_>
        <_>
          <internalNodes>
            0 -1 6 6.1375740915536880e-02</internalNodes>
          <leafValues>
            -8.4183132648468018e-01 9.1796582937240601e-01</leafValues></_>
        <_>
          <internalNodes>
            0 -1 34 -1.3997188769280910e-02</internalNodes>
          <leafValues>
            6.5284138917922974e-01 -9.4577831029891968e-01</leafValues></_></weakClassifiers></_>
    <!-- stage 1 -->
    <_>
      <maxWeakCount>3</maxWeakCount>
      <stageThreshold>-1.1330112218856812e+00</stageThreshold>
      <weakClassifiers>
        <_>
          <internalNodes>
            0 -1 3 -1.3016416132450104e-01</internalNodes>
          <leafValues>
            9.4392526149749756e-01 -9.6226418018341064e-01</leafValues></_>
        <_>
          <internalNodes>
            0 -1 1 7.1838833391666412e-02</internalNodes>
          <leafValues>
            -8.5148137807846069e-01 8.5152924060821533e-01</leafValues></_>
        <_>
          <internalNodes>
            0 -1 11 -6.5718755125999451e-02</internalNodes>
          <leafValues>
            6.8073433637619019e-01 -8.6225765943527222e-01</leafValues></_></weakClassifiers></_>
    <!-- stage 2 -->
    <_>
      <maxWeakCount>4</maxWeakCount>
      <stageThreshold>-1.6982836723327637e+00</stageThreshold>
      <weakClassifiers>
        <_>
          <internalNodes>
            0 -1 24 -5.5065557360649109e-02</internalNodes>
          <leafValues>
            9.8009949922561646e-01 -9.3001842498779297e-01</leafValues></_>
        <_>
          <internalNodes>
            0 -1 21 -9.7437277436256409e-02</internalNodes>
          <leafValues>
            9.5909786224365234e-01 -7.6222997903823853e-01</leafValues></_>
        <_>
          <internalNodes>
            0 -1 30 2.2636644542217255e-02</internalNodes>
          <leafValues>
            -7.3073357343673706e-01 5.0318604707717896e-01</leafValues></_>
        <_>
          <internalNodes>
            0 -1 10 -7.0034824311733246e-03</internalNodes>
          <leafValues>
            7.9364484548568726e-01 -5.0922137498855591e-01</leafValues></_></weakClassifiers></_>
    <!-- stage 3 -->
    <_>
      <maxWeakCount>3</maxWeakCount>
      <stageThreshold>-1.3703788518905640e+00</stageThreshold>
      <weakClassifiers>
        <_>
          <internalNodes>
            0 -1 17 1.4324653893709183e-02</internalNodes>
          <leafValues>
            -9.1881918907165527e-01 9.4059407711029053e-01</leafValues></_>
        <_>
          <internalNodes>
            0 -1 12 -2.4243690073490143e-02</internalNodes>
          <leafValues>
            8.3989751338958740e-01 -8.1597244739532471e-01</leafValues></_>
        <_>
          <internalNodes>
            0 -1 32 -7.2041410021483898e-04</internalNodes>
          <leafValues>
            -9.9530714750289917e-01 3.6441275477409363e-01</leafValues></_></weakClassifiers></_>
    <!-- stage 4 -->
    <_>
      <maxWeakCount>4</maxWeakCount>
      <stageThreshold>-1.8522813320159912e+00</stageThreshold>
      <weakClassifiers>
        <_>
          <internalNodes>
            0 -1 23 -5.8444552123546600e-02</internalNodes>
          <leafValues>
            9.7959184646606445e-01 -9.1240876913070679e-01</leafValues></_>
        <_>
          <internalNodes>
            0 -1 19 3.3908799290657043e-02</internalNodes>
          <leafValues>
            -7.9698282480239868e-01 8.4023302793502808e-01</leafValues></_>
        <_>
          <internalNodes>
            0 -1 14 -2.0329901576042175e-01</internalNodes>
          <leafValues>
            6.7586606740951538e-01 -5.5866158008575439e-01</leafValues></_>
        <_>
          <internalNodes>
            0 -1 29 -2.8943989891558886e-03</internalNodes>
          <leafValues>
            4.1577184200286865e-01 -8.8293683528900146e-01</leafValues></_></weakClassifiers></_>
    <!-- stage 5 -->
    <_>
      <maxWeakCount>4</maxWeakCount>
      <stageThreshold>-1.7969015836715698e+00</stageThreshold>
      <weakClassifiers>
        <_>
          <internalNodes>
            0 -1 18 -6.2854918651282787e-03</internalNodes>
          <leafValues>
            8.1735157966613770e-01 -9.2761904001235962e-01</leafValues></_>
        <_>
          <internalNodes>
            0 -1 9 -6.8559765815734863e-02</internalNodes>
          <leafValues>
            7.9565602540969849e-01 -8.3254784345626831e-01</leafValues></_>
        <_>
          <internalNodes>
            0 -1 13 -1.9870907068252563e-01</internalNodes>
          <leafValues>
            7.5850081443786621e-01 -5.9863555431365967e-01</leafValues></_>
        <_>
          <internalNodes>
            0 -1 15 -1.6408702358603477e-03</internalNodes>
          <leafValues>
            5.6190091371536255e-01 -7.3043423891067505e-01</leafValues></_></weakClassifiers></_>
    <!-- stage 6 -->
    <_>
      <maxWeakCount>4</maxWeakCount>
      <stageThreshold>-1.8221634626388550e+00</stageThreshold>
      <weakClassifiers>
        <_>
          <internalNodes>
            0 -1 26 -8.7019920349121094e-02</internalNodes>
          <leafValues>
            9.1044777631759644e-01 -9.0423572063446045e-01</leafValues></_>
        <_>
          <internalNodes>
            0 -1 5 -3.5283397883176804e-02</internalNodes>
          <leafValues>
            8.3733451366424561e-01 -8.1473779678344727e-01</leafValues></_>
        <_>
          <internalNodes>
            0 -1 20 3.1917225569486618e-02</internalNodes>
          <leafValues>
            -5.1839876174926758e-01 6.7562842369079590e-01</leafValues></_>
        <_>
          <internalNodes>
            0 -1 33 -2.3387128749163821e-05</internalNodes>
          <leafValues>
            4.1520875692367554e-01 -8.7073355913162231e-01</leafValues></_></weakClassifiers></_>
    <!-- stage 7 -->
    <_>
      <maxWeakCount>3</maxWeakCount>
      <stageThreshold>-1.3508985042572021e+00</stageThreshold>
      <weakClassifiers>
        <_>
          <internalNodes>
            0 -1 16 3.7078119814395905e-02</internalNodes>
          <leafValues>
            -8.8426762819290161e-01 9.4764399528503418e-01</leafValues></_>
        <_>
          <internalNodes>
            0 -1 8 -1.1056156456470490e-01</internalNodes>
          <leafValues>
            7.1698880195617676e-01 -8.0952578783035278e-01</leafValues></_>
        <_>
          <internalNodes>
            0 -1 28 -3.3988235518336296e-03</internalNodes>
          <leafValues>
            3.4289491176605225e-01 -7.6843112707138062e-01</leafValues></_></weakClassifiers></_>
    <!-- stage 8 -->
    <_>
      <maxWeakCount>4</maxWeakCount>
      <stageThreshold>-1.9213498830795288e+00</stageThreshold>
      <weakClassifiers>
        <_>
          <internalNodes>
            0 -1 22 -6.9971442222595215e-02</internalNodes>
          <leafValues>
            9.3650794029235840e-01 -8.7387388944625854e-01</leafValues></_>
        <_>
          <internalNodes>
            0 -1 7 -2.8835949301719666e-01</internalNodes>
          <leafValues>
            6.7726838588714600e-01 -8.6901509761810303e-01</leafValues></_>
        <_>
          <internalNodes>
            0 -1 0 -1.1880099773406982e-01</internalNodes>
          <leafValues>
            5.1493239402770996e-01 -7.1277487277984619e-01</leafValues></_>
        <_>
          <internalNodes>
            0 -1 2 -4.8164322972297668e-02</internalNodes>
          <leafValues>
            6.1341631412506104e-01 -6.9339329004287720e-01</leafValues></_></weakClassifiers></_>
    <!-- stage 9 -->
    <_>
      <maxWeakCount>3</maxWeakCount>
      <stageThreshold>-1.2505868673324585e+00</stageThreshold>
      <weakClassifiers>
        <_>
          <internalNodes>
            0 -1 25 -3.2692454755306244e-02</internalNodes>
          <leafValues>
            8.7378638982772827e-01 -9.0706318616867065e-01</leafValues></_>
        <_>
          <internalNodes>
            0 -1 27 -8.9425928890705109e-02</internalNodes>
          <leafValues>
            7.5007349252700806e-01 -7.4696213006973267e-01</leafValues></_>
        <_>
          <internalNodes>
            0 -1 31 -1.8753937911242247e-03</internalNodes>
          <leafValues>
            4.0343841910362244e-01 -8.9619368314743042e-01</leafValues></_></weakClassifiers></_></stages>
  <features>
    <_>
      <rects>
        <_>
          0 4 16 19 -1.</_>
        <_>
          8 4 8 19 2.</_></rects>
      <tilted>0</tilted></_>
    <_>
      <rects>
        <_>
          0 6 14 18 -1.</_>
        <_>
          0 6 7 9 2.</_>
        <_>
          7 15 7 9 2.</_></rects>
      <tilted>0</tilted></_>
    <_>
      <rects>
        <_>
          0 7 5 15 -1.</_>
        <_>
          0 12 5 5 3.</_></rects>
      <tilted>0</tilted></_>
    <_>
      <rects>
        <_>
          0 8 36 3 -1.</_>
        <_>
          12 8 12 3 3.</_></rects>
      <tilted>0</tilted></_>
    <_>
      <rects>
        <_>
          0 8 36 12 -1.</_>
        <_>
          0 12 36 4 3.</_></rects>
      <tilted>0</tilted></_>
    <_>
      <rects>
        <_>
          0 9 30 1 -1.</_>
        <_>
          10 9 10 1 3.</_></rects>
      <tilted>0</tilted></_>
    <_>
      <rects>
        <_>
          0 14 35 6 -1.</_>
        <_>
          0 16 35 2 3.</_></rects>
      <tilted>0</tilted></_>
    <_>
      <rects>
        <_>
          1 0 31 16 -1.</_>
        <_>
          1 8 31 8 2.</_></rects>
      <tilted>0</tilted></_>
    <_>
      <rects>
        <_>
          1 7 33 3 -1.</_>
        <_>
          12 7 11 3 3.</_></rects>
      <tilted>0</tilted></_>
    <_>
      <rects>
        <_>
          1 11 35 4 -1.</_>
        <_>
          1 13 35 2 2.</_></rects>
      <tilted>0</tilted></_>
    <_>
      <rects>
        <_>
          2 8 1 8 -1.</_>
        <_>
          2 12 1 4 2.</_></rects>
      <tilted>0</tilted></_>
    <_>
      <rects>
        <_>
          3 9 27 6 -1.</_>
        <_>
          12 9 9 6 3.</_></rects>
      <tilted>0</tilted></_>
    <_>
      <rects>
        <_>
          4 12 32 2 -1.</_>
        <_>
          4 13 32 1 2.</_></rects>
      <tilted>0</tilted></_>
    <_>
      <rects>
        <_>
          8 0 23 14 -1.</_>
        <_>
          8 7 23 7 2.</_></rects>
      <tilted>0</tilted></_>
    <_>
      <rects>
        <_>
          8 0 24 14 -1.</_>
        <_>
          8 7 24 7 2.</_></rects>
      <tilted>0</tilted></_>
    <_>
      <rects>
        <_>
          9 12 3 12 -1.</_>
        <_>
          10 12 1 12 3.</_></rects>
      <tilted>0</tilted></_>
    <_>
      <rects>
        <_>
          11 5 12 2 -1.</_>
        <_>
          15 5 4 2 3.</_></rects>
      <tilted>0</tilted></_>
    <_>
      <rects>
        <_>
          11 6 12 1 -1.</_>
        <_>
          15 6 4 1 3.</_></rects>
      <tilted>0</tilted></_>
    <_>
      <rects>
        <_>
          12 0 1 6 -1.</_>
        <_>
          12 3 1 3 2.</_></rects>
      <tilted>0</tilted></_>
    <_>
      <rects>
        <_>
          12 3 9 7 -1.</_>
        <_>
          15 3 3 7 3.</_></rects>
      <tilted>0</tilted></_>
    <_>
      <rects>
        <_>
          12 3 9 9 -1.</_>
        <_>
          15 3 3 9 3.</_></rects>
      <tilted>0</tilted></_>
    <_>
      <rects>
        <_>
          14 11 20 6 -1.</_>
        <_>
          14 13 20 2 3.</_></rects>
      <tilted>0</tilted></_>
    <_>
      <rects>
        <_>
          15 4 15 3 -1.</_>
        <_>
          20 4 5 3 3.</_></rects>
      <tilted>0</tilted></_>
    <_>
      <rects>
        <_>
          16 3 12 4 -1.</_>
        <_>
          20 3 4 4 3.</_></rects>
      <tilted>0</tilted></_>
    <_>
      <rects>
        <_>
          16 3 12 5 -1.</_>
        <_>
          20 3 4 5 3.</_></rects>
      <tilted>0</tilted></_>
    <_>
      <rects>
        <_>
          16 4 12 2 -1.</_>
        <_>
          20 4 4 2 3.</_></rects>
      <tilted>0</tilted></_>
    <_>
      <rects>
        <_>
          17 3 12 11 -1.</_>
        <_>
          21 3 4 11 3.</_></rects>
      <tilted>0</tilted></_>
    <_>
      <rects>
        <_>
          19 11 17 6 -1.</_>
        <_>
          19 13 17 2 3.</_></rects>
      <tilted>0</tilted></_>
    <_>
      <rects>
        <_>
          23 0 12 12 -1.</_>
        <_>
          23 4 12 4 3.</_></rects>
      <tilted>0</tilted></_>
    <_>
      <rects>
        <_>
          24 9 6 8 -1.</_>
        <_>
          24 9 3 4 2.</_>
        <_>
          27 13 3 4 2.</_></rects>
      <tilted>0</tilted></_>
    <_>
      <rects>
        <_>
          24 12 11 12 -1.</_>
        <_>
          24 16 11 4 3.</_></rects>
      <tilted>0</tilted></_>
    <_>
      <rects>
        <_>
          29 20 7 4 -1.</_>
        <_>
          29 22 7 2 2.</_></rects>
      <tilted>0</tilted></_>
    <_>
      <rects>
        <_>
          32 16 4 8 -1.</_>
        <_>
          34 16 2 8 2.</_></rects>
      <tilted>0</tilted></_>
    <_>
      <rects>
        <_>
          34 17 1 2 -1.</_>
        <_>
          34 18 1 1 2.</_></rects>
      <tilted>0</tilted></_>
    <_>
      <rects>
        <_>
          35 2 1 22 -1.</_>
        <_>
          35 13 1 11 2.</_></rects>
      <tilted>0</tilted></_></features></cascade>
</opencv_storage>
