<?xml version="1.0"?>
<opencv_storage>
<cascade>
  <stageType>BOOST</stageType>
  <featureType>HAAR</featureType>
  <height>24</height>
  <width>36</width>
  <stageParams>
    <boostType>GAB</boostType>
    <minHitRate>9.9500000476837158e-01</minHitRate>
    <maxFalseAlarm>5.0000000000000000e-01</maxFalseAlarm>
    <weightTrimRate>9.4999998807907104e-01</weightTrimRate>
    <maxDepth>1</maxDepth>
    <maxWeakCount>100</maxWeakCount></stageParams>
  <featureParams>
    <maxCatCount>0</maxCatCount>
    <featSize>1</featSize>
    <mode>BASIC</mode></featureParams>
  <stageNum>11</stageNum>
  <stages>
    <!-- stage 0 -->
    <_>
      <maxWeakCount>3</maxWeakCount>
      <stageThreshold>-8.6538439989089966e-01</stageThreshold>
      <weakClassifiers>
        <_>
          <internalNodes>
            0 -1 16 3.0075296759605408e-02</internalNodes>
          <leafValues>
            -9.0673577785491943e-01 9.8620688915252686e-01</leafValues></_>
        <_>
          <internalNodes>
            0 -1 18 1.4402643777430058e-02</internalNodes>
          <leafValues>
            -8.0580085515975952e-01 8.7768650054931641e-01</leafValues></_>
        <_>
          <internalNodes>
            0 -1 29 -6.2110878527164459e-02</internalNodes>
          <leafValues>
            8.4715223312377930e-01 -8.3528882265090942e-01</leafValues></_></weakClassifiers></_>
    <!-- stage 1 -->
    <_>
      <maxWeakCount>3</maxWeakCount>
      <stageThreshold>-9.4167608022689819e-01</stageThreshold>
      <weakClassifiers>
        <_>
          <internalNodes>
            0 -1 2 -7.1932457387447357e-02</internalNodes>
          <leafValues>
            9.8620688915252686e-01 -9.0673577785491943e-01</leafValues></_>
        <_>
          <internalNodes>
            0 -1 9 -1.8225168809294701e-02</internalNodes>
          <leafValues>
            8.3571410179138184e-01 -7.9027223587036133e-01</leafValues></_>
        <_>
          <internalNodes>
            0 -1 33 2.5505393743515015e-02</internalNodes>
          <leafValues>
            -8.5082149505615234e-01 7.5533187389373779e-01</leafValues></_></weakClassifiers></_>
    <!-- stage 2 -->
    <_>
      <maxWeakCount>3</maxWeakCount>
      <stageThreshold>-8.9965641498565674e-01</stageThreshold>
      <weakClassifiers>
        <_>
          <internalNodes>
            0 -1 13 -1.1306498944759369e-01</internalNodes>
          <leafValues>
            1. -8.7817257642745972e-01</leafValues></_>
        <_>
          <internalNodes>
            0 -1 32 -8.3407964557409286e-03</internalNodes>
          <leafValues>
            8.3785933256149292e-01 -6.5511077642440796e-01</leafValues></_>
        <_>
          <internalNodes>
            0 -1 10 -2.2987604141235352e-02</internalNodes>
          <leafValues>
            7.1213471889495850e-01 -8.5934317111968994e-01</leafValues></_></weakClassifiers></_>
    <!-- stage 3 -->
    <_>
      <maxWeakCount>3</maxWeakCount>
      <stageThreshold>-9.2867207527160645e-01</stageThreshold>
      <weakClassifiers>
        <_>
          <internalNodes>
            0 -1 4 -1.3054004311561584e-01</internalNodes>
          <leafValues>
            9.1891890764236450e-01 -8.8421052694320679e-01</leafValues></_>
        <_>
          <internalNodes>
            0 -1 17 -4.4228218495845795e-02</internalNodes>
          <leafValues>
            8.2863897085189819e-01 -6.6138887405395508e-01</leafValues></_>
        <_>
          <internalNodes>
            0 -1 39 -1.6923155635595322e-03</internalNodes>
          <leafValues>
            6.1692732572555542e-01 -8.4254270792007446e-01</leafValues></_></weakClassifiers></_>
    <!-- stage 4 -->
    <_>
      <maxWeakCount>3</maxWeakCount>
      <stageThreshold>-1.0426613092422485e+00</stageThreshold>
      <weakClassifiers>
        <_>
          <internalNodes>
            0 -1 3 -1.1167208850383759e-01</internalNodes>
          <leafValues>
            9.5862066745758057e-01 -8.8601034879684448e-01</leafValues></_>
        <_>
          <internalNodes>
            0 -1 23 -1.5595945715904236e-01</internalNodes>
          <leafValues>
            8.3463895320892334e-01 -7.1945744752883911e-01</leafValues></_>
        <_>
          <internalNodes>
            0 -1 36 -1.4185466170602012e-05</internalNodes>
          <leafValues>
            5.6280654668807983e-01 -9.0205508470535278e-01</leafValues></_></weakClassifiers></_>
    <!-- stage 5 -->
    <_>
      <maxWeakCount>4</maxWeakCount>
      <stageThreshold>-1.4390803575515747e+00</stageThreshold>
      <weakClassifiers>
        <_>
          <internalNodes>
            0 -1 22 3.3878713846206665e-02</internalNodes>
          <leafValues>
            -8.1909549236297607e-01 9.4244605302810669e-01</leafValues></_>
        <_>
          <internalNodes>
            0 -1 14 -2.3637799546122551e-02</internalNodes>
          <leafValues>
            8.8981831073760986e-01 -6.5542232990264893e-01</leafValues></_>
        <_>
          <internalNodes>
            0 -1 27 -6.6159859299659729e-02</internalNodes>
          <leafValues>
            8.0695980787277222e-01 -4.8933780193328857e-01</leafValues></_>
        <_>
          <internalNodes>
            0 -1 1 -5.4980292916297913e-02</internalNodes>
          <leafValues>
            5.8348381519317627e-01 -7.7152246236801147e-01</leafValues></_></weakClassifiers></_>
    <!-- stage 6 -->
    <_>
      <maxWeakCount>5</maxWeakCount>
      <stageThreshold>-1.1539556980133057e+00</stageThreshold>
      <weakClassifiers>
        <_>
          <internalNodes>
            0 -1 40 -6.7273946478962898e-03</internalNodes>
          <leafValues>
            8.4713375568389893e-01 -9.1160219907760620e-01</leafValues></_>
        <_>
          <internalNodes>
            0 -1 21 -6.3670370727777481e-03</internalNodes>
          <leafValues>
            9.4840049743652344e-01 -6.3572955131530762e-01</leafValues></_>
        <_>
          <internalNodes>
            0 -1 37 -3.7158406339585781e-03</internalNodes>
          <leafValues>
            4.5271641016006470e-01 -1.</leafValues></_>
        <_>
          <internalNodes>
            0 -1 35 3.6636330187320709e-02</internalNodes>
          <leafValues>
            -6.6637474298477173e-01 6.0217207670211792e-01</leafValues></_>
        <_>
          <internalNodes>
            0 -1 20 -6.4403973519802094e-03</internalNodes>
          <leafValues>
            6.0703438520431519e-01 -6.4880073070526123e-01</leafValues></_></weakClassifiers></_>
    <!-- stage 7 -->
    <_>
      <maxWeakCount>5</maxWeakCount>
      <stageThreshold>-1.3375632762908936e+00</stageThreshold>
      <weakClassifiers>
        <_>
          <internalNodes>
            0 -1 19 1.3602877035737038e-02</internalNodes>
          <leafValues>
            -7.7560973167419434e-01 9.5488721132278442e-01</leafValues></_>
        <_>
          <internalNodes>
            0 -1 0 -5.9541091322898865e-02</internalNodes>
          <leafValues>
            7.9357868432998657e-01 -6.7367273569107056e-01</leafValues></_>
        <_>
          <internalNodes>
            0 -1 11 4.7095194458961487e-02</internalNodes>
          <leafValues>
            3.6629045009613037e-01 -1.</leafValues></_>
        <_>
          <internalNodes>
            0 -1 12 1.4293685555458069e-02</internalNodes>
          <leafValues>
            -6.5544843673706055e-01 5.2020668983459473e-01</leafValues></_>
        <_>
          <internalNodes>
            0 -1 41 -1.4010876417160034e-02</internalNodes>
          <leafValues>
            5.2042204141616821e-01 -7.7477794885635376e-01</leafValues></_></weakClassifiers></_>
    <!-- stage 8 -->
    <_>
      <maxWeakCount>5</maxWeakCount>
      <stageThreshold>-9.7887879610061646e-01</stageThreshold>
      <weakClassifiers>
        <_>
          <internalNodes>
            0 -1 28 -4.8688417300581932e-03</internalNodes>
          <leafValues>
            8.7412589788436890e-01 -8.0512821674346924e-01</leafValues></_>
        <_>
          <internalNodes>
            0 -1 15 -7.3810517787933350e-02</internalNodes>
          <leafValues>
            9.2569988965988159e-01 -5.4302674531936646e-01</leafValues></_>
        <_>
          <internalNodes>
            0 -1 5 -4.6824172022752464e-04</internalNodes>
          <leafValues>
            4.1161066293716431e-01 -9.7914516925811768e-01</leafValues></_>
        <_>
          <internalNodes>
            0 -1 30 2.1723925601691008e-04</internalNodes>
          <leafValues>
            -8.2974839210510254e-01 3.8648781180381775e-01</leafValues></_>
        <_>
          <internalNodes>
            0 -1 34 -2.0488161593675613e-02</internalNodes>
          <leafValues>
            9.4787591695785522e-01 -4.2882233858108521e-01</leafValues></_></weakClassifiers></_>
    <!-- stage 9 -->
    <_>
      <maxWeakCount>3</maxWeakCount>
      <stageThreshold>-1.0896092653274536e+00</stageThreshold>
      <weakClassifiers>
        <_>
          <internalNodes>
            0 -1 26 -1.5343400835990906e-01</internalNodes>
          <leafValues>
            7.8881984949111938e-01 -8.9830505847930908e-01</leafValues></_>
        <_>
          <internalNodes>
            0 -1 6 -2.8639338910579681e-02</internalNodes>
          <leafValues>
            6.5476131439208984e-01 -7.3642039299011230e-01</leafValues></_>
        <_>
          <internalNodes>
            0 -1 24 1.2192261219024658e-01</internalNodes>
          <leafValues>
            -7.5987720489501953e-01 5.4511630535125732e-01</leafValues></_></weakClassifiers></_>
    <!-- stage 10 -->
    <_>
      <maxWeakCount>5</maxWeakCount>
      <stageThreshold>-1.3853962421417236e+00</stageThreshold>
      <weakClassifiers>
        <_>
          <internalNodes>
            0 -1 7 -2.3849329352378845e-01</internalNodes>
          <leafValues>
            7.7499997615814209e-01 -8.7640452384948730e-01</leafValues></_>
        <_>
          <internalNodes>
            0 -1 31 -5.0171026960015297e-03</internalNodes>
          <leafValues>
            7.8698211908340454e-01 -6.0512143373489380e-01</leafValues></_>
        <_>
          <internalNodes>
            0 -1 38 -7.9100346192717552e-04</internalNodes>
          <leafValues>
            -9.8950856924057007e-01 3.9612576365470886e-01</leafValues></_>
        <_>
          <internalNodes>
            0 -1 8 6.9890916347503662e-03</internalNodes>
          <leafValues>
            -7.9349458217620850e-01 4.6442478895187378e-01</leafValues></_>
        <_>
          <internalNodes>
            0 -1 25 2.2877391893416643e-04</internalNodes>
          <leafValues>
            -7.6442092657089233e-01 5.0308829545974731e-01</leafValues></_></weakClassifiers></_></stages>
  <features>
    <_>
      <rects>
        <_>
          0 7 6 15 -1.</_>
        <_>
          0 12 6 5 3.</_></rects>
      <tilted>0</tilted></_>
    <_>
      <rects>
        <_>
          0 7 18 15 -1.</_>
        <_>
          9 7 9 15 2.</_></rects>
      <tilted>0</tilted></_>
    <_>
      <rects>
        <_>
          0 7 36 2 -1.</_>
        <_>
          12 7 12 2 3.</_></rects>
      <tilted>0</tilted></_>
    <_>
      <rects>
        <_>
          0 8 33 3 -1.</_>
        <_>
          11 8 11 3 3.</_></rects>
      <tilted>0</tilted></_>
    <_>
      <rects>
        <_>
          0 8 36 3 -1.</_>
        <_>
          12 8 12 3 3.</_></rects>
      <tilted>0</tilted></_>
    <_>
      <rects>
        <_>
          0 9 18 4 -1.</_>
        <_>
          0 11 18 2 2.</_></rects>
      <tilted>0</tilted></_>
    <_>
      <rects>
        <_>
          1 6 24 2 -1.</_>
        <_>
          9 6 8 2 3.</_></rects>
      <tilted>0</tilted></_>
    <_>
      <rects>
        <_>
          1 8 35 12 -1.</_>
        <_>
          1 12 35 4 3.</_></rects>
      <tilted>0</tilted></_>
    <_>
      <rects>
        <_>
          1 12 20 8 -1.</_>
        <_>
          1 12 10 4 2.</_>
        <_>
          11 16 10 4 2.</_></rects>
      <tilted>0</tilted></_>
    <_>
      <rects>
        <_>
          2 0 12 10 -1.</_>
        <_>
          2 0 6 5 2.</_>
        <_>
          8 5 6 5 2.</_></rects>
      <tilted>0</tilted></_>
    <_>
      <rects>
        <_>
          2 5 4 16 -1.</_>
        <_>
          2 13 4 8 2.</_></rects>
      <tilted>0</tilted></_>
    <_>
      <rects>
        <_>
          3 0 23 15 -1.</_>
        <_>
          3 5 23 5 3.</_></rects>
      <tilted>0</tilted></_>
    <_>
      <rects>
        <_>
          3 13 7 9 -1.</_>
        <_>
          3 16 7 3 3.</_></rects>
      <tilted>0</tilted></_>
    <_>
      <rects>
        <_>
          4 11 32 6 -1.</_>
        <_>
          4 13 32 2 3.</_></rects>
      <tilted>0</tilted></_>
    <_>
      <rects>
        <_>
          4 12 32 2 -1.</_>
        <_>
          4 13 32 1 2.</_></rects>
      <tilted>0</tilted></_>
    <_>
      <rects>
        <_>
          5 2 12 9 -1.</_>
        <_>
          9 2 4 9 3.</_></rects>
      <tilted>0</tilted></_>
    <_>
      <rects>
        <_>
          5 13 24 4 -1.</_>
        <_>
          5 15 24 2 2.</_></rects>
      <tilted>0</tilted></_>
    <_>
      <rects>
        <_>
          6 5 12 14 -1.</_>
        <_>
          10 5 4 14 3.</_></rects>
      <tilted>0</tilted></_>
    <_>
      <rects>
        <_>
          7 14 12 6 -1.</_>
        <_>
          7 16 12 2 3.</_></rects>
      <tilted>0</tilted></_>
    <_>
      <rects>
        <_>
          11 5 12 1 -1.</_>
        <_>
          15 5 4 1 3.</_></rects>
      <tilted>0</tilted></_>
    <_>
      <rects>
        <_>
          11 7 13 6 -1.</_>
        <_>
          11 9 13 2 3.</_></rects>
      <tilted>0</tilted></_>
    <_>
      <rects>
        <_>
          12 0 1 6 -1.</_>
        <_>
          12 3 1 3 2.</_></rects>
      <tilted>0</tilted></_>
    <_>
      <rects>
        <_>
          12 3 9 7 -1.</_>
        <_>
          15 3 3 7 3.</_></rects>
      <tilted>0</tilted></_>
    <_>
      <rects>
        <_>
          13 0 19 14 -1.</_>
        <_>
          13 7 19 7 2.</_></rects>
      <tilted>0</tilted></_>
    <_>
      <rects>
        <_>
          13 4 22 14 -1.</_>
        <_>
          24 4 11 14 2.</_></rects>
      <tilted>0</tilted></_>
    <_>
      <rects>
        <_>
          13 10 3 2 -1.</_>
        <_>
          13 11 3 1 2.</_></rects>
      <tilted>0</tilted></_>
    <_>
      <rects>
        <_>
          14 0 11 21 -1.</_>
        <_>
          14 7 11 7 3.</_></rects>
      <tilted>0</tilted></_>
    <_>
      <rects>
        <_>
          16 2 12 21 -1.</_>
        <_>
          20 2 4 21 3.</_></rects>
      <tilted>0</tilted></_>
    <_>
      <rects>
        <_>
          16 5 6 1 -1.</_>
        <_>
          19 5 3 1 2.</_></rects>
      <tilted>0</tilted></_>
    <_>
      <rects>
        <_>
          17 8 19 12 -1.</_>
        <_>
          17 12 19 4 3.</_></rects>
      <tilted>0</tilted></_>
    <_>
      <rects>
        <_>
          17 10 5 2 -1.</_>
        <_>
          17 11 5 1 2.</_></rects>
      <tilted>0</tilted></_>
    <_>
      <rects>
        <_>
          18 4 6 2 -1.</_>
        <_>
          20 4 2 2 3.</_></rects>
      <tilted>0</tilted></_>
    <_>
      <rects>
        <_>
          18 13 18 3 -1.</_>
        <_>
          18 14 18 1 3.</_></rects>
      <tilted>0</tilted></_>
    <_>
      <rects>
        <_>
          19 7 14 6 -1.</_>
        <_>
          26 7 7 6 2.</_></rects>
      <tilted>0</tilted></_>
    <_>
      <rects>
        <_>
          20 8 9 3 -1.</_>
        <_>
          23 8 3 3 3.</_></rects>
      <tilted>0</tilted></_>
    <_>
      <rects>
        <_>
          25 12 10 12 -1.</_>
        <_>
          25 16 10 4 3.</_></rects>
      <tilted>0</tilted></_>
    <_>
      <rects>
        <_>
          25 20 1 4 -1.</_>
        <_>
          25 22 1 2 2.</_></rects>
      <tilted>0</tilted></_>
    <_>
      <rects>
        <_>
          29 8 5 14 -1.</_>
        <_>
          29 15 5 7 2.</_></rects>
      <tilted>0</tilted></_>
    <_>
      <rects>
        <_>
          32 16 4 8 -1.</_>
        <_>
          34 16 2 8 2.</_></rects>
      <tilted>0</tilted></_>
    <_>
      <rects>
        <_>
          33 16 3 6 -1.</_>
        <_>
          33 19 3 3 2.</_></rects>
      <tilted>0</tilted></_>
    <_>
      <rects>
        <_>
          34 11 2 4 -1.</_>
        <_>
          34 13 2 2 2.</_></rects>
      <tilted>0</tilted></_>
    <_>
      <rects>
        <_>
          35 2 1 22 -1.</_>
        <_>
          35 13 1 11 2.</_></rects>
      <tilted>0</tilted></_></features></cascade>
</opencv_storage>
